3 4 16 3 0.100783 -0.422804 0.347276 -0.362650 0.200715 0.150337 0.215536 0.380449 -0.667284 -0.832919 -0.134618 -0.368382 -0.358985 0.263691 -0.434962 -0.135724 0.227265 -0.385995 0.257075 0.665470 0.113336 -0.507842 0.571939 0.039039 -0.704370 0.442277 -0.022796 0.431580 -0.609430 0.016727 0.026554 -0.393745 0.008288 -0.338660 -0.371151 -0.215982 0.066731 -0.174939 0.227251 0.876056 0.130708 0.524024 0.272827 -0.387124 -0.145247 0.098827 0.580832 -0.182283 -0.272153 0.087652 0.261837 -0.055652 0.609568 -0.404052 -1.059400 -0.110945 0.294001 0.384400 -0.828383 0.034108 0.069292 0.211200 0.196142 -0.649538 -0.864138 -0.158821 -0.398307 -0.176376 0.176212 -0.292731 0.238960 0.160451 0.336830 0.493864 0.461114 0.112639 0.236806 0.550560 -0.855920 -0.998982 -0.192911 0.612802 0.796609 0.131968 -0.512054 0.562874 0.037159 0.111877 -0.500974 -0.569037 -0.123636 0.178007 0.008040 0.518756 0.079437 -0.305684 0.202101 -0.121447 0.118157 0.134272 0.012862 0.461380 0.019463 -0.481771 -0.524210 0.317870 0.023337 -0.263259 -0.737037 -0.205164 -0.268975 0.256638 -0.540805 -0.781971 0.061325 -0.306114 -0.575160 -0.085359 -0.167083 -0.344871 -0.867651 0.008122 0.316988 -0.384502 0.456790 -0.856659 -0.571219 -0.134935 0.054283 -0.104863 -0.783121 